{"learner":{"attributes":{"scikit_learn":"{\"_estimator_type\": \"regressor\"}"},"feature_names":["mbti_score","activity_match","experience","pet_mbti_ENFJ","pet_mbti_ENFP","pet_mbti_ENTJ","pet_mbti_ENTP","pet_mbti_ESFJ","pet_mbti_ESFP","pet_mbti_ESTJ","pet_mbti_ESTP","pet_mbti_INFJ","pet_mbti_INFP","pet_mbti_INTJ","pet_mbti_INTP","pet_mbti_ISFJ","pet_mbti_ISFP","pet_mbti_ISTJ","pet_mbti_ISTP","trainer_mbti_ENFJ","trainer_mbti_ENFP","trainer_mbti_ENTJ","trainer_mbti_ENTP","trainer_mbti_ESFJ","trainer_mbti_ESFP","trainer_mbti_ESTJ","trainer_mbti_ESTP","trainer_mbti_INFJ","trainer_mbti_INFP","trainer_mbti_INTJ","trainer_mbti_INTP","trainer_mbti_ISFJ","trainer_mbti_ISFP","trainer_mbti_ISTJ","trainer_mbti_ISTP"],"feature_types":["float","int","int","i","i","i","i","i","i","i","i","i","i","i","i","i","i","i","i","i","i","i","i","i","i","i","i","i","i","i","i","i","i","i","i"],"gradient_booster":{"model":{"gbtree_model_param":{"num_parallel_tree":"1","num_trees":"50"},"iteration_indptr":[0,1,2,3,4,5,6,7,8,9,10,11,12,13,14,15,16,17,18,19,20,21,22,23,24,25,26,27,28,29,30,31,32,33,34,35,36,37,38,39,40,41,42,43,44,45,46,47,48,49,50],"tree_info":[0,0,0,0,0,0,0,0,0,0,0,0,0,0,0,0,0,0,0,0,0,0,0,0,0,0,0,0,0,0,0,0,0,0,0,0,0,0,0,0,0,0,0,0,0,0,0,0,0,0],"trees":[{"base_weights":[-7.3995875E-7,-5.1440263E0,2.7916768E0,-1.242999E1,-1.851105E-1,-1.0089277E0,4.077436E0,-1.6869022E0,-3.368334E-1,-6.4842916E-1,2.043767E-1,-5.9165466E-1,2.544305E-1,1.5892911E-1,3.6882648E-1],"categories":[],"categories_nodes":[],"categories_segments":[],"categories_sizes":[],"default_left":[0,0,0,0,0,0,0,0,0,0,0,0,0,0,0],"id":0,"left_children":[1,3,5,7,9,11,13,-1,-1,-1,-1,-1,-1,-1,-1],"loss_changes":[1.1491241E5,1.0170499E5,2.5351223E4,8.102333E4,3.639002E4,3.512751E4,4.3094453E3,0E0,0E0,0E0,0E0,0E0,0E0,0E0,0E0],"parents":[2147483647,0,0,1,1,2,2,3,3,4,4,5,5,6,6],"right_children":[2,4,6,8,10,12,14,-1,-1,-1,-1,-1,-1,-1,-1],"split_conditions":[6.4039177E-1,5E0,0E0,5E0,0E0,5E0,3E0,-1.6869022E0,-3.368334E-1,-6.4842916E-1,2.043767E-1,-5.9165466E-1,2.544305E-1,1.5892911E-1,3.6882648E-1],"split_indices":[0,2,1,1,1,2,2,0,0,0,0,0,0,0,0],"split_type":[0,0,0,0,0,0,0,0,0,0,0,0,0,0,0],"sum_hessian":[8E3,2.814E3,5.186E3,1.139E3,1.675E3,1.311E3,3.875E3,5.54E2,5.85E2,4.3E2,1.245E3,5.19E2,7.92E2,7.88E2,3.087E3],"tree_param":{"num_deleted":"0","num_feature":"35","num_nodes":"15","size_leaf_vector":"1"}},{"base_weights":[-2.8603125E-4,-4.582085E0,2.660814E0,-1.3155614E1,-9.782453E-1,-7.187965E-1,3.7916987E0,-1.6854833E0,-4.384736E-1,-6.942977E-1,1.4056768E-1,-6.280564E-1,1.9141248E-1,1.5317413E-1,3.4184554E-1],"categories":[],"categories_nodes":[],"categories_segments":[],"categories_sizes":[],"default_left":[0,0,0,0,0,0,0,0,0,0,0,0,0,0,0],"id":1,"left_children":[1,3,5,7,9,11,13,-1,-1,-1,-1,-1,-1,-1,-1],"loss_changes":[9.756539E4,9.082614E4,1.9349426E4,5.2719016E4,4.3637613E4,2.820084E4,3.418961E3,0E0,0E0,0E0,0E0,0E0,0E0,0E0,0E0],"parents":[2147483647,0,0,1,1,2,2,3,3,4,4,5,5,6,6],"right_children":[2,4,6,8,10,12,14,-1,-1,-1,-1,-1,-1,-1,-1],"split_conditions":[6.4694077E-1,4E0,0E0,5E0,0E0,4E0,3E0,-1.6854833E0,-4.384736E-1,-6.942977E-1,1.4056768E-1,-6.280564E-1,1.9141248E-1,1.5317413E-1,3.4184554E-1],"split_indices":[0,2,1,1,1,2,2,0,0,0,0,0,0,0,0],"split_type":[0,0,0,0,0,0,0,0,0,0,0,0,0,0,0],"sum_hessian":[8E3,2.939E3,5.061E3,8.69E2,2.07E3,1.269E3,3.792E3,4.27E2,4.42E2,5.42E2,1.528E3,3.85E2,8.84E2,7.75E2,3.017E3],"tree_param":{"num_deleted":"0","num_feature":"35","num_nodes":"15","size_leaf_vector":"1"}},{"base_weights":[-5.885466E-4,-4.0238266E0,2.5759995E0,-9.096297E0,1.0805284E0,-3.622663E-1,3.5475051E0,-1.3089784E0,-1.6877046E-1,-3.342499E-1,2.3797753E-1,-7.093881E-1,1.395768E-1,1.5301697E-1,3.1704813E-1],"categories":[],"categories_nodes":[],"categories_segments":[],"categories_sizes":[],"default_left":[0,0,0,0,0,0,0,0,0,0,0,0,0,0,0],"id":2,"left_children":[1,3,5,7,9,11,13,-1,-1,-1,-1,-1,-1,-1,-1],"loss_changes":[8.295055E4,8.089545E4,1.392574E4,7.9513695E4,1.5531498E4,2.1752447E4,2.4831562E3,0E0,0E0,0E0,0E0,0E0,0E0,0E0,0E0],"parents":[2147483647,0,0,1,1,2,2,3,3,4,4,5,5,6,6],"right_children":[2,4,6,8,10,12,14,-1,-1,-1,-1,-1,-1,-1,-1],"split_conditions":[6.5504175E-1,6E0,0E0,5E0,0E0,3E0,3E0,-1.3089784E0,-1.6877046E-1,-3.342499E-1,2.3797753E-1,-7.093881E-1,1.395768E-1,1.5301697E-1,3.1704813E-1],"split_indices":[0,2,1,1,1,2,2,0,0,0,0,0,0,0,0],"split_type":[0,0,0,0,0,0,0,0,0,0,0,0,0,0,0],"sum_hessian":[8E3,3.123E3,4.877E3,1.566E3,1.557E3,1.212E3,3.665E3,7.67E2,7.99E2,4.12E2,1.145E3,2.4E2,9.72E2,7.44E2,2.921E3],"tree_param":{"num_deleted":"0","num_feature":"35","num_nodes":"15","size_leaf_vector":"1"}},{"base_weights":[-7.5053563E-4,-4.0487065E0,2.196087E0,-1.1581929E1,-8.6055267E-1,-7.598489E-1,3.196085E0,-1.4642023E0,-4.0688258E-1,-3.940692E-1,2.5645036E-1,-4.804595E-1,2.1448323E-1,1.2550685E-1,2.8886563E-1],"categories":[],"categories_nodes":[],"categories_segments":[],"categories_sizes":[],"default_left":[0,0,0,0,0,0,0,0,0,0,0,0,0,0,0],"id":3,"left_children":[1,3,5,7,9,11,13,-1,-1,-1,-1,-1,-1,-1,-1],"loss_changes":[7.115939E4,6.759808E4,1.5334838E4,3.644725E4,3.2729254E4,2.3698416E4,2.6101602E3,0E0,0E0,0E0,0E0,0E0,0E0,0E0,0E0],"parents":[2147483647,0,0,1,1,2,2,3,3,4,4,5,5,6,6],"right_children":[2,4,6,8,10,12,14,-1,-1,-1,-1,-1,-1,-1,-1],"split_conditions":[6.4039177E-1,4E0,0E0,5E0,5E0,5E0,3E0,-1.4642023E0,-4.0688258E-1,-3.940692E-1,2.5645036E-1,-4.804595E-1,2.1448323E-1,1.2550685E-1,2.8886563E-1],"split_indices":[0,2,1,1,1,2,2,0,0,0,0,0,0,0,0],"split_type":[0,0,0,0,0,0,0,0,0,0,0,0,0,0,0],"sum_hessian":[8E3,2.814E3,5.186E3,8.36E2,1.978E3,1.311E3,3.875E3,4.1E2,4.26E2,9.89E2,9.89E2,5.19E2,7.92E2,7.88E2,3.087E3],"tree_param":{"num_deleted":"0","num_feature":"35","num_nodes":"15","size_leaf_vector":"1"}},{"base_weights":[-9.2209637E-4,-2.955704E0,2.6037047E0,-8.087923E0,6.1405563E-1,3.3805433E-1,3.1678555E0,-1.1610119E0,-1.5252864E-1,-3.5991287E-1,1.9133589E-1,-5.02207E-1,1.9847305E-1,1.8564415E-1,2.9167625E-1],"categories":[],"categories_nodes":[],"categories_segments":[],"categories_sizes":[],"default_left":[0,0,0,0,0,0,0,0,0,0,0,0,0,0,0],"id":4,"left_children":[1,3,5,7,9,11,13,-1,-1,-1,-1,-1,-1,-1,-1],"loss_changes":[6.1584223E4,6.868959E4,5.4349785E3,6.1051305E4,2.0115693E4,1.2051325E4,1.3708828E3,0E0,0E0,0E0,0E0,0E0,0E0,0E0,0E0],"parents":[2147483647,0,0,1,1,2,2,3,3,4,4,5,5,6,6],"right_children":[2,4,6,8,10,12,14,-1,-1,-1,-1,-1,-1,-1,-1],"split_conditions":[6.872363E-1,5E0,3E0,5E0,0E0,0E0,7.6260805E-1,-1.1610119E0,-1.5252864E-1,-3.5991287E-1,1.9133589E-1,-5.02207E-1,1.9847305E-1,1.8564415E-1,2.9167625E-1],"split_indices":[0,2,2,1,1,1,0,0,0,0,0,0,0,0,0],"split_type":[0,0,0,0,0,0,0,0,0,0,0,0,0,0,0],"sum_hessian":[8E3,3.748E3,4.252E3,1.537E3,2.211E3,8.48E2,3.404E3,7.53E2,7.84E2,5.7E2,1.641E3,2.07E2,6.41E2,1.23E3,2.174E3],"tree_param":{"num_deleted":"0","num_feature":"35","num_nodes":"15","size_leaf_vector":"1"}},{"base_weights":[-1.0133516E-3,-4.6754217E0,1.4939032E0,-8.825284E0,9.6257555E-1,-1.6223539E0,2.5599146E0,-1.2253225E0,-2.4009678E-1,-3.1701675E-1,2.0822236E-1,-4.6840817E-1,2.0856172E-1,4.988815E-2,2.4465881E-1],"categories":[],"categories_nodes":[],"categories_segments":[],"categories_sizes":[],"default_left":[0,0,0,0,0,0,0,0,0,0,0,0,0,0,0],"id":5,"left_children":[1,3,5,7,9,11,13,-1,-1,-1,-1,-1,-1,-1,-1],"loss_changes":[5.5916773E4,4.537511E4,2.0145232E4,4.218279E4,6.6588965E3,2.7691572E4,4.3575293E3,0E0,0E0,0E0,0E0,0E0,0E0,0E0,0E0],"parents":[2147483647,0,0,1,1,2,2,3,3,4,4,5,5,6,6],"right_children":[2,4,6,8,10,12,14,-1,-1,-1,-1,-1,-1,-1,-1],"split_conditions":[5.953183E-1,7E0,0E0,5E0,0E0,6E0,3E0,-1.2253225E0,-2.4009678E-1,-3.1701675E-1,2.0822236E-1,-4.6840817E-1,2.0856172E-1,4.988815E-2,2.4465881E-1],"split_indices":[0,2,1,1,1,2,2,0,0,0,0,0,0,0,0],"split_type":[0,0,0,0,0,0,0,0,0,0,0,0,0,0,0],"sum_hessian":[8E3,1.938E3,6.062E3,1.116E3,8.22E2,1.545E3,4.517E3,5.27E2,5.89E2,2.05E2,6.17E2,7.72E2,7.73E2,9.25E2,3.592E3],"tree_param":{"num_deleted":"0","num_feature":"35","num_nodes":"15","size_leaf_vector":"1"}},{"base_weights":[-1.1256146E-3,-3.984241E0,1.4997388E0,-1.0935005E1,-1.1135298E0,-1.1844342E0,2.4195385E0,-1.6816218E0,-6.3081586E-1,-3.927418E-1,2.0092128E-1,-4.6163028E-1,1.4924969E-1,9.4689995E-2,2.4139102E-1],"categories":[],"categories_nodes":[],"categories_segments":[],"categories_sizes":[],"default_left":[0,0,0,0,0,0,0,0,0,0,0,0,0,0,0],"id":6,"left_children":[1,3,5,7,9,11,13,-1,-1,-1,-1,-1,-1,-1,-1],"loss_changes":[4.7836883E4,4.3686293E4,1.4352122E4,1.9519438E4,2.135369E4,2.0768043E4,3.195084E3,0E0,0E0,0E0,0E0,0E0,0E0,0E0,0E0],"parents":[2147483647,0,0,1,1,2,2,3,3,4,4,5,5,6,6],"right_children":[2,4,6,8,10,12,14,-1,-1,-1,-1,-1,-1,-1,-1],"split_conditions":[6.085162E-1,4E0,0E0,0E0,5E0,5E0,5E0,-1.6816218E0,-6.3081586E-1,-3.927418E-1,2.0092128E-1,-4.6163028E-1,1.4924969E-1,9.4689995E-2,2.4139102E-1],"split_indices":[0,2,1,1,1,2,1,0,0,0,0,0,0,0,0],"split_type":[0,0,0,0,0,0,0,0,0,0,0,0,0,0,0],"sum_hessian":[8E3,2.189E3,5.811E3,6.39E2,1.55E3,1.483E3,4.328E3,1.47E2,4.92E2,7.57E2,7.93E2,5.92E2,8.91E2,1.412E3,2.916E3],"tree_param":{"num_deleted":"0","num_feature":"35","num_nodes":"15","size_leaf_vector":"1"}},{"base_weights":[-1.3462043E-3,-2.1200168E0,2.5171833E0,-6.301328E0,7.884847E-1,1.5051122E0,2.94651E0,-9.352126E-1,-8.670338E-2,-2.5258923E-1,1.7174271E-1,-5.9602454E-2,1.9991149E-1,1.6658558E-1,2.4377826E-1],"categories":[],"categories_nodes":[],"categories_segments":[],"categories_sizes":[],"default_left":[0,0,0,0,0,0,0,0,0,0,0,0,0,0,0],"id":7,"left_children":[1,3,5,7,9,11,13,-1,-1,-1,-1,-1,-1,-1,-1],"loss_changes":[4.269815E4,5.28582E4,1.5841309E3,5.011889E4,1.3748908E4,2.4415022E3,2.1699805E2,0E0,0E0,0E0,0E0,0E0,0E0,0E0,0E0],"parents":[2147483647,0,0,1,1,2,2,3,3,4,4,5,5,6,6],"right_children":[2,4,6,8,10,12,14,-1,-1,-1,-1,-1,-1,-1,-1],"split_conditions":[7.158275E-1,5E0,7.701875E-1,5E0,0E0,4E0,2E0,-9.352126E-1,-8.670338E-2,-2.5258923E-1,1.7174271E-1,-5.9602454E-2,1.9991149E-1,1.6658558E-1,2.4377826E-1],"split_indices":[0,2,0,1,1,2,2,0,0,0,0,0,0,0,0],"split_type":[0,0,0,0,0,0,0,0,0,0,0,0,0,0,0],"sum_hessian":[8E3,4.345E3,3.655E3,1.782E3,2.563E3,1.09E3,2.565E3,8.76E2,9.06E2,6.56E2,1.907E3,3.34E2,7.56E2,2.7E2,2.295E3],"tree_param":{"num_deleted":"0","num_feature":"35","num_nodes":"15","size_leaf_vector":"1"}},{"base_weights":[-1.3102229E-3,-4.0385222E0,1.1821907E0,-7.7144346E0,8.115163E-1,-1.3667955E0,2.0527782E0,-8.5667044E-1,1.0845343E-1,-2.629304E-1,1.7335281E-1,-3.905858E-1,1.7168067E-1,3.223767E-2,1.9812667E-1],"categories":[],"categories_nodes":[],"categories_segments":[],"categories_sizes":[],"default_left":[0,0,0,0,0,0,0,0,0,0,0,0,0,0,0],"id":8,"left_children":[1,3,5,7,9,11,13,-1,-1,-1,-1,-1,-1,-1,-1],"loss_changes":[3.8233902E4,3.2346826E4,1.3734693E4,2.8038883E4,4.356376E3,1.9473066E4,3.2243984E3,0E0,0E0,0E0,0E0,0E0,0E0,0E0,0E0],"parents":[2147483647,0,0,1,1,2,2,3,3,4,4,5,5,6,6],"right_children":[2,4,6,8,10,12,14,-1,-1,-1,-1,-1,-1,-1,-1],"split_conditions":[5.897648E-1,7E0,0E0,1E1,0E0,6E0,3E0,-8.5667044E-1,1.0845343E-1,-2.629304E-1,1.7335281E-1,-3.905858E-1,1.7168067E-1,3.223767E-2,1.9812667E-1],"split_indices":[0,2,1,1,1,2,2,0,0,0,0,0,0,0,0],"split_type":[0,0,0,0,0,0,0,0,0,0,0,0,0,0,0],"sum_hessian":[8E3,1.813E3,6.187E3,1.031E3,7.82E2,1.575E3,4.612E3,7.75E2,2.56E2,1.94E2,5.88E2,7.87E2,7.88E2,9.43E2,3.669E3],"tree_param":{"num_deleted":"0","num_feature":"35","num_nodes":"15","size_leaf_vector":"1"}},{"base_weights":[-1.3087344E-3,-2.0499303E0,2.0168202E0,-6.893345E0,4.0021766E-2,8.7943214E-1,2.5640817E0,-1.2311374E0,-3.3477223E-1,-3.3272254E-1,1.2172318E-1,-1.785167E-1,1.5527548E-1,1.7574711E-1,2.257256E-1],"categories":[],"categories_nodes":[],"categories_segments":[],"categories_sizes":[],"default_left":[0,0,0,0,0,0,0,0,0,0,0,0,0,0,0],"id":9,"left_children":[1,3,5,7,9,11,13,-1,-1,-1,-1,-1,-1,-1,-1],"loss_changes":[3.3083324E4,4.019674E4,2.506838E3,2.7481809E4,1.726953E4,4.333576E3,2.5109961E2,0E0,0E0,0E0,0E0,0E0,0E0,0E0,0E0],"parents":[2147483647,0,0,1,1,2,2,3,3,4,4,5,5,6,6],"right_children":[2,4,6,8,10,12,14,-1,-1,-1,-1,-1,-1,-1,-1],"split_conditions":[6.9793385E-1,4E0,7.6260805E-1,0E0,0E0,0E0,8.2035387E-1,-1.2311374E0,-3.3477223E-1,-3.3272254E-1,1.2172318E-1,-1.785167E-1,1.5527548E-1,1.7574711E-1,2.257256E-1],"split_indices":[0,2,0,1,1,1,0,0,0,0,0,0,0,0,0],"split_type":[0,0,0,0,0,0,0,0,0,0,0,0,0,0,0],"sum_hessian":[8E3,3.97E3,4.03E3,1.196E3,2.774E3,1.31E3,2.72E3,2.88E2,9.08E2,7.23E2,2.051E3,3.33E2,9.77E2,1.125E3,1.595E3],"tree_param":{"num_deleted":"0","num_feature":"35","num_nodes":"15","size_leaf_vector":"1"}},{"base_weights":[-1.3793384E-3,-4.483516E0,8.5528415E-1,-8.05852E0,1.970702E-1,-2.0354476E0,1.5846775E0,-1.087426E0,-2.5818166E-1,-3.552849E-1,1.2956387E-1,-4.5596027E-1,1.241076E-1,6.649526E-3,1.6877837E-1],"categories":[],"categories_nodes":[],"categories_segments":[],"categories_sizes":[],"default_left":[0,0,0,0,0,0,0,0,0,0,0,0,0,0,0],"id":10,"left_children":[1,3,5,7,9,11,13,-1,-1,-1,-1,-1,-1,-1,-1],"loss_changes":[3.0725139E4,2.1486914E4,1.4167998E4,1.9421098E4,3.6820784E3,1.7803393E4,4.229573E3,0E0,0E0,0E0,0E0,0E0,0E0,0E0,0E0],"parents":[2147483647,0,0,1,1,2,2,3,3,4,4,5,5,6,6],"right_children":[2,4,6,8,10,12,14,-1,-1,-1,-1,-1,-1,-1,-1],"split_conditions":[5.6248266E-1,7E0,3E0,5E0,0E0,5E0,0E0,-1.087426E0,-2.5818166E-1,-3.552849E-1,1.2956387E-1,-4.5596027E-1,1.241076E-1,6.649526E-3,1.6877837E-1],"split_indices":[0,2,2,1,1,1,1,0,0,0,0,0,0,0,0],"split_type":[0,0,0,0,0,0,0,0,0,0,0,0,0,0,0],"sum_hessian":[8E3,1.283E3,6.717E3,7.27E2,5.56E2,1.353E3,5.364E3,3.38E2,3.89E2,1.3E2,4.26E2,6.69E2,6.84E2,1.39E3,3.974E3],"tree_param":{"num_deleted":"0","num_feature":"35","num_nodes":"15","size_leaf_vector":"1"}},{"base_weights":[-1.4848722E-3,-1.6626117E0,1.9731483E0,-4.400958E0,1.1700547E0,1.2031996E0,2.370722E0,-6.9129735E-1,-2.1922648E-2,-5.337983E-2,1.8717043E-1,-4.0625494E-2,1.558438E-1,2.2661416E-1,1.776873E-1],"categories":[],"categories_nodes":[],"categories_segments":[],"categories_sizes":[],"default_left":[0,0,0,0,0,0,0,0,0,0,0,0,0,0,0],"id":11,"left_children":[1,3,5,7,9,11,13,-1,-1,-1,-1,-1,-1,-1,-1],"loss_changes":[2.624749E4,3.3716297E4,1.116291E3,3.867093E4,4.5936836E3,1.5902264E3,1.6029395E2,0E0,0E0,0E0,0E0,0E0,0E0,0E0,0E0],"parents":[2147483647,0,0,1,1,2,2,3,3,4,4,5,5,6,6],"right_children":[2,4,6,8,10,12,14,-1,-1,-1,-1,-1,-1,-1,-1],"split_conditions":[7.158275E-1,6E0,7.784834E-1,5E0,8E0,4E0,0E0,-6.9129735E-1,-2.1922648E-2,-5.337983E-2,1.8717043E-1,-4.0625494E-2,1.558438E-1,2.2661416E-1,1.776873E-1],"split_indices":[0,2,0,1,2,2,1,0,0,0,0,0,0,0,0],"split_type":[0,0,0,0,0,0,0,0,0,0,0,0,0,0,0],"sum_hessian":[8E3,4.345E3,3.655E3,2.209E3,2.136E3,1.246E3,2.409E3,1.089E3,1.12E3,8.31E2,1.305E3,3.78E2,8.68E2,5.85E2,1.824E3],"tree_param":{"num_deleted":"0","num_feature":"35","num_nodes":"15","size_leaf_vector":"1"}},{"base_weights":[-1.3742684E-3,-4.019355E0,7.665758E-1,-9.821395E0,-1.7569185E0,-1.7659833E0,1.4055914E0,-9.8363227E-1,-1.1333003E-1,-4.2155677E-1,1.2424953E-1,-4.0031916E-1,1.3010553E-1,6.865721E-3,1.4936593E-1],"categories":[],"categories_nodes":[],"categories_segments":[],"categories_sizes":[],"default_left":[0,0,0,0,0,0,0,0,0,0,0,0,0,0,0],"id":12,"left_children":[1,3,5,7,9,11,13,-1,-1,-1,-1,-1,-1,-1,-1],"loss_changes":[2.4691035E4,1.6837482E4,1.0874521E4,7.4682344E3,1.076283E4,1.4880876E4,3.2673994E3,0E0,0E0,0E0,0E0,0E0,0E0,0E0,0E0],"parents":[2147483647,0,0,1,1,2,2,3,3,4,4,5,5,6,6],"right_children":[2,4,6,8,10,12,14,-1,-1,-1,-1,-1,-1,-1,-1],"split_conditions":[5.6248266E-1,4E0,3E0,1E1,5E0,7.3465586E-1,0E0,-9.8363227E-1,-1.1333003E-1,-4.2155677E-1,1.2424953E-1,-4.0031916E-1,1.3010553E-1,6.865721E-3,1.4936593E-1],"split_indices":[0,2,2,1,1,0,1,0,0,0,0,0,0,0,0],"split_type":[0,0,0,0,0,0,0,0,0,0,0,0,0,0,0],"sum_hessian":[8E3,1.283E3,6.717E3,3.59E2,9.24E2,1.353E3,5.364E3,2.77E2,8.2E1,4.48E2,4.76E2,6.92E2,6.61E2,1.39E3,3.974E3],"tree_param":{"num_deleted":"0","num_feature":"35","num_nodes":"15","size_leaf_vector":"1"}},{"base_weights":[-1.4539951E-3,-3.0006971E0,8.7776846E-1,-5.760559E0,6.4065427E-1,-2.0743814E-1,1.9525701E0,-6.5247196E-1,1.195584E-1,-8.162345E-2,1.9238542E-1,-2.7182794E-1,9.530051E-2,1.2313874E-1,1.8854113E-1],"categories":[],"categories_nodes":[],"categories_segments":[],"categories_sizes":[],"default_left":[0,0,0,0,0,0,0,0,0,0,0,0,0,0,0],"id":13,"left_children":[1,3,5,7,9,11,13,-1,-1,-1,-1,-1,-1,-1,-1],"loss_changes":[2.1101285E4,1.8233709E4,7.217976E3,1.7946586E4,2.2967869E3,1.3748273E4,5.1578613E2,0E0,0E0,0E0,0E0,0E0,0E0,0E0,0E0],"parents":[2147483647,0,0,1,1,2,2,3,3,4,4,5,5,6,6],"right_children":[2,4,6,8,10,12,14,-1,-1,-1,-1,-1,-1,-1,-1],"split_conditions":[5.897648E-1,7E0,5E0,1E1,9E0,4E0,1E1,-6.5247196E-1,1.195584E-1,-8.162345E-2,1.9238542E-1,-2.7182794E-1,9.530051E-2,1.2313874E-1,1.8854113E-1],"split_indices":[0,2,1,1,2,2,1,0,0,0,0,0,0,0,0],"split_type":[0,0,0,0,0,0,0,0,0,0,0,0,0,0,0],"sum_hessian":[8E3,1.813E3,6.187E3,1.031E3,7.82E2,3.079E3,3.108E3,7.75E2,2.56E2,4.03E2,3.79E2,9.38E2,2.141E3,1.539E3,1.569E3],"tree_param":{"num_deleted":"0","num_feature":"35","num_nodes":"15","size_leaf_vector":"1"}},{"base_weights":[-1.371975E-3,-3.2763216E0,6.985227E-1,-8.943139E0,-1.5349009E0,-1.4835801E0,1.2502385E0,-9.949436E-1,-1.04401335E-1,-4.9573985E-1,2.6159631E-2,-3.5764354E-1,1.23337716E-1,4.3194693E-2,1.5723875E-1],"categories":[],"categories_nodes":[],"categories_segments":[],"categories_sizes":[],"default_left":[0,0,0,0,0,0,0,0,0,0,0,0,0,0,0],"id":14,"left_children":[1,3,5,7,9,11,13,-1,-1,-1,-1,-1,-1,-1,-1],"loss_changes":[1.834154E4,1.38907295E4,7.939172E3,8.816492E3,9.367613E3,1.2034431E4,2.6727666E3,0E0,0E0,0E0,0E0,0E0,0E0,0E0,0E0],"parents":[2147483647,0,0,1,1,2,2,3,3,4,4,5,5,6,6],"right_children":[2,4,6,8,10,12,14,-1,-1,-1,-1,-1,-1,-1,-1],"split_conditions":[5.698062E-1,0E0,3E0,8E0,4E0,7.3465586E-1,7E0,-9.949436E-1,-1.04401335E-1,-4.9573985E-1,2.6159631E-2,-3.5764354E-1,1.23337716E-1,4.3194693E-2,1.5723875E-1],"split_indices":[0,1,2,2,2,0,2,0,0,0,0,0,0,0,0],"split_type":[0,0,0,0,0,0,0,0,0,0,0,0,0,0,0],"sum_hessian":[8E3,1.408E3,6.592E3,3.3E2,1.078E3,1.33E3,5.262E3,2.26E2,1.04E2,3.07E2,7.71E2,6.69E2,6.61E2,2.641E3,2.621E3],"tree_param":{"num_deleted":"0","num_feature":"35","num_nodes":"15","size_leaf_vector":"1"}},{"base_weights":[-1.464573E-3,-1.6017286E0,1.2617137E0,-5.9208817E0,-1.3024715E-1,4.0699822E-1,1.8115851E0,-7.318772E-1,1.3507529E-1,-3.2773775E-1,7.15666E-2,-1.7495666E-1,1.03988044E-1,1.2644298E-1,1.7221671E-1],"categories":[],"categories_nodes":[],"categories_segments":[],"categories_sizes":[],"default_left":[0,0,0,0,0,0,0,0,0,0,0,0,0,0,0],"id":15,"left_children":[1,3,5,7,9,11,13,-1,-1,-1,-1,-1,-1,-1,-1],"loss_changes":[1.6175391E4,2.2434332E4,2.1010298E3,2.2045523E4,1.0710771E4,4.06051E3,2.1105566E2,0E0,0E0,0E0,0E0,0E0,0E0,0E0,0E0],"parents":[2147483647,0,0,1,1,2,2,3,3,4,4,5,5,6,6],"right_children":[2,4,6,8,10,12,14,-1,-1,-1,-1,-1,-1,-1,-1],"split_conditions":[6.752795E-1,0E0,7.6260805E-1,8E0,3E0,0E0,8.4648156E-1,-7.318772E-1,1.3507529E-1,-3.2773775E-1,7.15666E-2,-1.7495666E-1,1.03988044E-1,1.2644298E-1,1.7221671E-1],"split_indices":[0,1,0,2,2,1,0,0,0,0,0,0,0,0,0],"split_type":[0,0,0,0,0,0,0,0,0,0,0,0,0,0,0],"sum_hessian":[8E3,3.529E3,4.471E3,8.96E2,2.633E3,1.751E3,2.72E3,6.29E2,2.67E2,5.4E2,2.093E3,4.48E2,1.303E3,1.625E3,1.095E3],"tree_param":{"num_deleted":"0","num_feature":"35","num_nodes":"15","size_leaf_vector":"1"}},{"base_weights":[-1.4248745E-3,-3.7654333E0,4.9898648E-1,-6.5921264E0,-1.18021965E-1,-5.762135E-1,1.5589323E0,-7.318449E-1,5.1601365E-2,-1.809373E-1,1.6716915E-1,-2.3942767E-1,8.431926E-2,8.2748294E-2,1.6646959E-1],"categories":[],"categories_nodes":[],"categories_segments":[],"categories_sizes":[],"default_left":[0,0,0,0,0,0,0,0,0,0,0,0,0,0,0],"id":16,"left_children":[1,3,5,7,9,11,13,-1,-1,-1,-1,-1,-1,-1,-1],"loss_changes":[1.5072183E4,9.680419E3,8.0502725E3,9.79117E3,1.9497827E3,1.3819349E4,9.717451E2,0E0,0E0,0E0,0E0,0E0,0E0,0E0,0E0],"parents":[2147483647,0,0,1,1,2,2,3,3,4,4,5,5,6,6],"right_children":[2,4,6,8,10,12,14,-1,-1,-1,-1,-1,-1,-1,-1],"split_conditions":[5.4516375E-1,7E0,5E0,1E1,5E0,5E0,1E1,-7.318449E-1,5.1601365E-2,-1.809373E-1,1.6716915E-1,-2.3942767E-1,8.431926E-2,8.2748294E-2,1.6646959E-1],"split_indices":[0,2,1,1,1,2,1,0,0,0,0,0,0,0,0],"split_type":[0,0,0,0,0,0,0,0,0,0,0,0,0,0,0],"sum_hessian":[8E3,9.38E2,7.062E3,5.28E2,4.1E2,3.506E3,3.556E3,3.9E2,1.38E2,2.08E2,2.02E2,1.412E3,2.094E3,1.775E3,1.781E3],"tree_param":{"num_deleted":"0","num_feature":"35","num_nodes":"15","size_leaf_vector":"1"}},{"base_weights":[-1.3873064E-3,-1.161652E0,1.3778554E0,-4.8580747E0,1.0624761E-1,7.7232856E-1,1.6905999E0,-6.0676956E-1,1.470315E-1,-2.540587E-1,7.520386E-2,-1.5587568E-1,8.5958995E-2,1.891949E-1,1.1785175E-1],"categories":[],"categories_nodes":[],"categories_segments":[],"categories_sizes":[],"default_left":[0,0,0,0,0,0,0,0,0,0,0,0,0,0,0],"id":17,"left_children":[1,3,5,7,9,11,13,-1,-1,-1,-1,-1,-1,-1,-1],"loss_changes":[1.2805493E4,2.0368883E4,6.910503E2,2.027905E4,8.861095E3,1.02726E3,3.4991016E2,0E0,0E0,0E0,0E0,0E0,0E0,0E0,0E0],"parents":[2147483647,0,0,1,1,2,2,3,3,4,4,5,5,6,6],"right_children":[2,4,6,8,10,12,14,-1,-1,-1,-1,-1,-1,-1,-1],"split_conditions":[7.158275E-1,0E0,7.784834E-1,8E0,3E0,2E0,0E0,-6.0676956E-1,1.470315E-1,-2.540587E-1,7.520386E-2,-1.5587568E-1,8.5958995E-2,1.891949E-1,1.1785175E-1],"split_indices":[0,1,0,2,2,2,1,0,0,0,0,0,0,0,0],"split_type":[0,0,0,0,0,0,0,0,0,0,0,0,0,0,0],"sum_hessian":[8E3,4.345E3,3.655E3,1.109E3,3.236E3,1.246E3,2.409E3,7.88E2,3.21E2,6.55E2,2.581E3,1.24E2,1.122E3,5.85E2,1.824E3],"tree_param":{"num_deleted":"0","num_feature":"35","num_nodes":"15","size_leaf_vector":"1"}},{"base_weights":[-1.3262226E-3,-3.3907917E0,4.49291E-1,-6.362794E0,-6.193179E-1,-4.9314278E-1,1.3783509E0,-7.525215E-1,-6.272576E-2,-3.8300705E-1,9.018718E-2,-1.6675158E-1,1.1898635E-1,7.194918E-2,1.4839606E-1],"categories":[],"categories_nodes":[],"categories_segments":[],"categories_sizes":[],"default_left":[0,0,0,0,0,0,0,0,0,0,0,0,0,0,0],"id":18,"left_children":[1,3,5,7,9,11,13,-1,-1,-1,-1,-1,-1,-1,-1],"loss_changes":[1.2221862E4,7.7304385E3,6.1848833E3,7.6846094E3,3.5510208E3,1.1055166E4,8.1034033E2,0E0,0E0,0E0,0E0,0E0,0E0,0E0,0E0],"parents":[2147483647,0,0,1,1,2,2,3,3,4,4,5,5,6,6],"right_children":[2,4,6,8,10,12,14,-1,-1,-1,-1,-1,-1,-1,-1],"split_conditions":[5.4516375E-1,5E0,5E0,8E0,4E0,7.4013835E-1,1E1,-7.525215E-1,-6.272576E-2,-3.8300705E-1,9.018718E-2,-1.6675158E-1,1.1898635E-1,7.194918E-2,1.4839606E-1],"split_indices":[0,1,1,2,2,0,1,0,0,0,0,0,0,0,0],"split_type":[0,0,0,0,0,0,0,0,0,0,0,0,0,0,0],"sum_hessian":[8E3,9.38E2,7.062E3,4.52E2,4.86E2,3.506E3,3.556E3,2.92E2,1.6E2,1.43E2,3.43E2,1.944E3,1.562E3,1.775E3,1.781E3],"tree_param":{"num_deleted":"0","num_feature":"35","num_nodes":"15","size_leaf_vector":"1"}},{"base_weights":[-1.3397535E-3,-2.771694E0,4.6787578E-1,-4.286321E0,1.4833157E0,-2.1805184E0,7.6905715E-1,-5.6514895E-1,-5.420224E-2,-9.795538E-2,1.6992822E-1,-3.913046E-1,6.64624E-2,-2.833507E-2,9.2526354E-2],"categories":[],"categories_nodes":[],"categories_segments":[],"categories_sizes":[],"default_left":[0,0,0,0,0,0,0,0,0,0,0,0,0,0,0],"id":19,"left_children":[1,3,5,7,9,11,13,-1,-1,-1,-1,-1,-1,-1,-1],"loss_changes":[1.0401743E4,7.475828E3,5.459975E3,8.566906E3,5.3180524E2,5.709997E3,2.6752212E3,0E0,0E0,0E0,0E0,0E0,0E0,0E0,0E0],"parents":[2147483647,0,0,1,1,2,2,3,3,4,4,5,5,6,6],"right_children":[2,4,6,8,10,12,14,-1,-1,-1,-1,-1,-1,-1,-1],"split_conditions":[5.5535525E-1,1E1,2E0,7E0,3E0,7.435148E-1,0E0,-5.6514895E-1,-5.420224E-2,-9.795538E-2,1.6992822E-1,-3.913046E-1,6.64624E-2,-2.833507E-2,9.2526354E-2],"split_indices":[0,1,2,2,2,0,1,0,0,0,0,0,0,0,0],"split_type":[0,0,0,0,0,0,0,0,0,0,0,0,0,0,0],"sum_hessian":[8E3,1.158E3,6.842E3,8.54E2,3.04E2,6.98E2,6.144E3,4.82E2,3.72E2,5.8E1,2.46E2,3.67E2,3.31E2,1.576E3,4.568E3],"tree_param":{"num_deleted":"0","num_feature":"35","num_nodes":"15","size_leaf_vector":"1"}},{"base_weights":[-1.3353443E-3,-1.728537E0,6.494859E-1,-6.2668524E0,-6.2259716E-1,-1.2189343E0,8.6321235E-1,-6.7521256E-1,5.5496316E-2,-3.248797E-1,4.0607587E-2,-3.1922764E-1,1.1722574E-1,2.2489686E-2,1.0068432E-1],"categories":[],"categories_nodes":[],"categories_segments":[],"categories_sizes":[],"default_left":[0,0,0,0,0,0,0,0,0,0,0,0,0,0,0],"id":20,"left_children":[1,3,5,7,9,11,13,-1,-1,-1,-1,-1,-1,-1,-1],"loss_changes":[8.995042E3,1.09879375E4,2.3219631E3,6.4955117E3,6.8492837E3,4.4470366E3,1.199978E3,0E0,0E0,0E0,0E0,0E0,0E0,0E0,0E0],"parents":[2147483647,0,0,1,1,2,2,3,3,4,4,5,5,6,6],"right_children":[2,4,6,8,10,12,14,-1,-1,-1,-1,-1,-1,-1,-1],"split_conditions":[6.085162E-1,3E0,2E0,1E1,0E0,5E0,7.245439E-1,-6.7521256E-1,5.5496316E-2,-3.248797E-1,4.0607587E-2,-3.1922764E-1,1.1722574E-1,2.2489686E-2,1.0068432E-1],"split_indices":[0,2,2,1,1,1,0,0,0,0,0,0,0,0,0],"split_type":[0,0,0,0,0,0,0,0,0,0,0,0,0,0,0],"sum_hessian":[8E3,2.189E3,5.811E3,4.28E2,1.761E3,5.96E2,5.215E3,3.26E2,1.02E2,4.35E2,1.326E3,2.93E2,3.03E2,2.11E3,3.105E3],"tree_param":{"num_deleted":"0","num_feature":"35","num_nodes":"15","size_leaf_vector":"1"}},{"base_weights":[-1.3526694E-3,-2.7733026E0,3.6716813E-1,-5.303023E0,-4.1450065E-1,-4.4281128E-1,1.1871965E0,-6.3196176E-1,-4.358228E-2,-2.512672E-1,1.17139205E-1,-2.7106914E-1,4.423033E-2,5.1834837E-2,1.22835144E-1],"categories":[],"categories_nodes":[],"categories_segments":[],"categories_sizes":[],"default_left":[0,0,0,0,0,0,0,0,0,0,0,0,0,0,0],"id":21,"left_children":[1,3,5,7,9,11,13,-1,-1,-1,-1,-1,-1,-1,-1],"loss_changes":[8.174209E3,5.6009175E3,4.6918135E3,5.59241E3,2.4990542E3,1.0425255E4,6.581616E2,0E0,0E0,0E0,0E0,0E0,0E0,0E0,0E0],"parents":[2147483647,0,0,1,1,2,2,3,3,4,4,5,5,6,6],"right_children":[2,4,6,8,10,12,14,-1,-1,-1,-1,-1,-1,-1,-1],"split_conditions":[5.4516375E-1,5E0,6E0,8E0,5E0,0E0,8E0,-6.3196176E-1,-4.358228E-2,-2.512672E-1,1.17139205E-1,-2.7106914E-1,4.423033E-2,5.1834837E-2,1.22835144E-1],"split_indices":[0,1,2,2,2,1,2,0,0,0,0,0,0,0,0],"split_type":[0,0,0,0,0,0,0,0,0,0,0,0,0,0,0],"sum_hessian":[8E3,9.38E2,7.062E3,4.52E2,4.86E2,3.553E3,3.509E3,2.92E2,1.6E2,1.98E2,2.88E2,8.97E2,2.656E3,1.378E3,2.131E3],"tree_param":{"num_deleted":"0","num_feature":"35","num_nodes":"15","size_leaf_vector":"1"}},{"base_weights":[-1.3505812E-3,-3.2118816E0,2.7112687E-1,-7.3300614E0,-1.6729265E0,-5.491905E-1,1.0809846E0,-7.1321326E-1,-1.2714387E-1,-4.8894972E-1,-2.6515685E-2,-1.7397982E-1,8.5143745E-2,5.1888723E-2,1.2078103E-1],"categories":[],"categories_nodes":[],"categories_segments":[],"categories_sizes":[],"default_left":[0,0,0,0,0,0,0,0,0,0,0,0,0,0,0],"id":22,"left_children":[1,3,5,7,9,11,13,-1,-1,-1,-1,-1,-1,-1,-1],"loss_changes":[7.000124E3,3.9551338E3,4.9007686E3,1.5327812E3,2.7192988E3,9.614937E3,6.872007E2,0E0,0E0,0E0,0E0,0E0,0E0,0E0,0E0],"parents":[2147483647,0,0,1,1,2,2,3,3,4,4,5,5,6,6],"right_children":[2,4,6,8,10,12,14,-1,-1,-1,-1,-1,-1,-1,-1],"split_conditions":[5.302303E-1,4E0,5E0,1E1,0E0,6E0,1E1,-7.1321326E-1,-1.2714387E-1,-4.8894972E-1,-2.6515685E-2,-1.7397982E-1,8.5143745E-2,5.1888723E-2,1.2078103E-1],"split_indices":[0,2,1,1,1,2,1,0,0,0,0,0,0,0,0],"split_type":[0,0,0,0,0,0,0,0,0,0,0,0,0,0,0],"sum_hessian":[8E3,6.25E2,7.375E3,1.69E2,4.56E2,3.664E3,3.711E3,1.32E2,3.7E1,1.05E2,3.51E2,1.825E3,1.839E3,1.849E3,1.862E3],"tree_param":{"num_deleted":"0","num_feature":"35","num_nodes":"15","size_leaf_vector":"1"}},{"base_weights":[-1.4012312E-3,-1.0235077E0,8.0540496E-1,-3.985421E0,-1.4449411E-2,3.0064556E-1,1.2371532E0,-5.115752E-1,1.3544253E-1,-7.669975E-2,1.5027751E-1,-1.2814344E-1,6.291897E-2,1.7007735E-1,7.608647E-2],"categories":[],"categories_nodes":[],"categories_segments":[],"categories_sizes":[],"default_left":[0,0,0,0,0,0,0,0,0,0,0,0,0,0,0],"id":23,"left_children":[1,3,5,7,9,11,13,-1,-1,-1,-1,-1,-1,-1,-1],"loss_changes":[6.598784E3,1.0550205E4,9.7420654E2,1.2282615E4,4.7100186E3,1.9080571E3,6.107571E2,0E0,0E0,0E0,0E0,0E0,0E0,0E0,0E0],"parents":[2147483647,0,0,1,1,2,2,3,3,4,4,5,5,6,6],"right_children":[2,4,6,8,10,12,14,-1,-1,-1,-1,-1,-1,-1,-1],"split_conditions":[6.752795E-1,0E0,7.784834E-1,8E0,1E1,3E0,0E0,-5.115752E-1,1.3544253E-1,-7.669975E-2,1.5027751E-1,-1.2814344E-1,6.291897E-2,1.7007735E-1,7.608647E-2],"split_indices":[0,1,0,2,1,2,1,0,0,0,0,0,0,0,0],"split_type":[0,0,0,0,0,0,0,0,0,0,0,0,0,0,0],"sum_hessian":[8E3,3.529E3,4.471E3,8.96E2,2.633E3,2.062E3,2.409E3,6.29E2,2.67E2,1.757E3,8.76E2,4.19E2,1.643E3,5.85E2,1.824E3],"tree_param":{"num_deleted":"0","num_feature":"35","num_nodes":"15","size_leaf_vector":"1"}},{"base_weights":[-1.3049545E-3,-1.7180154E0,4.2539516E-1,-3.9231331E0,8.876408E-1,-1.8148358E0,6.185577E-1,-4.657514E-1,1.8551645E-1,-1.2886335E-1,1.3088301E-1,-4.6524328E-1,-4.9533453E-2,1.8672314E-2,1.0012604E-1],"categories":[],"categories_nodes":[],"categories_segments":[],"categories_sizes":[],"default_left":[0,0,0,0,0,0,0,0,0,0,0,0,0,0,0],"id":24,"left_children":[1,3,5,7,9,11,13,-1,-1,-1,-1,-1,-1,-1,-1],"loss_changes":[5.8616274E3,9.156508E3,2.774481E3,1.0241973E4,1.3694734E3,2.4312075E3,1.4384263E3,0E0,0E0,0E0,0E0,0E0,0E0,0E0,0E0],"parents":[2147483647,0,0,1,1,2,2,3,3,4,4,5,5,6,6],"right_children":[2,4,6,8,10,12,14,-1,-1,-1,-1,-1,-1,-1,-1],"split_conditions":[3E0,7.158275E-1,5.302303E-1,1E1,0E0,0E0,8E0,-4.657514E-1,1.8551645E-1,-1.2886335E-1,1.3088301E-1,-4.6524328E-1,-4.9533453E-2,1.8672314E-2,1.0012604E-1],"split_indices":[2,0,0,1,1,1,2,0,0,0,0,0,0,0,0],"split_type":[0,0,0,0,0,0,0,0,0,0,0,0,0,0,0],"sum_hessian":[8E3,1.592E3,6.408E3,8.62E2,7.3E2,5.08E2,5.9E3,6.61E2,2.01E2,1.68E2,5.62E2,1.16E2,3.92E2,3.669E3,2.231E3],"tree_param":{"num_deleted":"0","num_feature":"35","num_nodes":"15","size_leaf_vector":"1"}},{"base_weights":[-1.2841498E-3,-1.7002324E0,3.9098206E-1,-3.6432986E0,7.668314E-2,-1.4791279E0,6.075486E-1,-4.213915E-1,7.113214E-2,-1.1158737E-1,1.2565205E-1,-4.3569565E-1,-1.4798881E-2,2.064748E-2,8.3511755E-2],"categories":[],"categories_nodes":[],"categories_segments":[],"categories_sizes":[],"default_left":[0,0,0,0,0,0,0,0,0,0,0,0,0,0,0],"id":25,"left_children":[1,3,5,7,9,11,13,-1,-1,-1,-1,-1,-1,-1,-1],"loss_changes":[5.332851E3,5.1827295E3,2.6338247E3,5.2826133E3,1.7279432E3,3.464408E3,8.882554E2,0E0,0E0,0E0,0E0,0E0,0E0,0E0,0E0],"parents":[2147483647,0,0,1,1,2,2,3,3,4,4,5,5,6,6],"right_children":[2,4,6,8,10,12,14,-1,-1,-1,-1,-1,-1,-1,-1],"split_conditions":[5.749455E-1,6E0,2E0,1E1,5E0,0E0,7E0,-4.213915E-1,7.113214E-2,-1.1158737E-1,1.2565205E-1,-4.3569565E-1,-1.4798881E-2,2.064748E-2,8.3511755E-2],"split_indices":[0,2,2,1,1,1,2,0,0,0,0,0,0,0,0],"split_type":[0,0,0,0,0,0,0,0,0,0,0,0,0,0,0],"sum_hessian":[8E3,1.5E3,6.5E3,7.16E2,7.84E2,6.74E2,5.826E3,5.27E2,1.89E2,3.95E2,3.89E2,1.65E2,5.09E2,3.236E3,2.59E3],"tree_param":{"num_deleted":"0","num_feature":"35","num_nodes":"15","size_leaf_vector":"1"}},{"base_weights":[-1.2650806E-3,-1.9711884E0,2.904081E-1,-3.9654272E0,-1.9573839E-1,-1.5325732E0,4.9838609E-1,-4.417734E-1,1.1756464E-1,-4.302201E-1,3.249905E-2,-2.9228973E-1,7.351323E-2,-2.1301111E-2,6.0962908E-2],"categories":[],"categories_nodes":[],"categories_segments":[],"categories_sizes":[],"default_left":[0,0,0,0,0,0,0,0,0,0,0,0,0,0,0],"id":26,"left_children":[1,3,5,7,9,11,13,-1,-1,-1,-1,-1,-1,-1,-1],"loss_changes":[4.597738E3,3.6531968E3,2.6433696E3,4.120094E3,1.7085238E3,3.7159624E3,1.2616154E3,0E0,0E0,0E0,0E0,0E0,0E0,0E0,0E0],"parents":[2147483647,0,0,1,1,2,2,3,3,4,4,5,5,6,6],"right_children":[2,4,6,8,10,12,14,-1,-1,-1,-1,-1,-1,-1,-1],"split_conditions":[5.498232E-1,5E0,2E0,9E0,2E0,7.435148E-1,0E0,-4.417734E-1,1.1756464E-1,-4.302201E-1,3.249905E-2,-2.9228973E-1,7.351323E-2,-2.1301111E-2,6.0962908E-2],"split_indices":[0,1,2,2,2,0,1,0,0,0,0,0,0,0,0],"split_type":[0,0,0,0,0,0,0,0,0,0,0,0,0,0,0],"sum_hessian":[8E3,1.031E3,6.969E3,4.85E2,5.46E2,7.13E2,6.256E3,3.77E2,1.08E2,5.6E1,4.9E2,3.82E2,3.31E2,1.604E3,4.652E3],"tree_param":{"num_deleted":"0","num_feature":"35","num_nodes":"15","size_leaf_vector":"1"}},{"base_weights":[-1.2788137E-3,-7.4573237E-1,6.984176E-1,-2.2058349E0,6.819894E-1,3.7465915E-1,1.1102673E0,-3.1133258E-1,1.2591247E-1,-1.785016E-1,8.1424855E-2,-4.5171686E-2,5.6350183E-2,1.9148374E-1,5.700381E-2],"categories":[],"categories_nodes":[],"categories_segments":[],"categories_sizes":[],"default_left":[0,0,0,0,0,0,0,0,0,0,0,0,0,0,0],"id":27,"left_children":[1,3,5,7,9,11,13,-1,-1,-1,-1,-1,-1,-1,-1],"loss_changes":[4.1681733E3,8.083576E3,5.4961084E2,1.2221197E4,1.9207852E3,7.161283E2,9.2464404E2,0E0,0E0,0E0,0E0,0E0,0E0,0E0,0E0],"parents":[2147483647,0,0,1,1,2,2,3,3,4,4,5,5,6,6],"right_children":[2,4,6,8,10,12,14,-1,-1,-1,-1,-1,-1,-1,-1],"split_conditions":[6.9374824E-1,5E0,8.0908984E-1,8E0,2E0,0E0,0E0,-3.1133258E-1,1.2591247E-1,-1.785016E-1,8.1424855E-2,-4.5171686E-2,5.6350183E-2,1.9148374E-1,5.700381E-2],"split_indices":[0,1,0,2,2,1,1,0,0,0,0,0,0,0,0],"split_type":[0,0,0,0,0,0,0,0,0,0,0,0,0,0,0],"sum_hessian":[8E3,3.876E3,4.124E3,1.916E3,1.96E3,2.31E3,1.814E3,1.325E3,5.91E2,2.02E2,1.758E3,6E2,1.71E3,4.28E2,1.386E3],"tree_param":{"num_deleted":"0","num_feature":"35","num_nodes":"15","size_leaf_vector":"1"}},{"base_weights":[-1.1807168E-3,-2.6898816E0,1.7840071E-1,-6.3106127E0,-1.3234978E0,-8.80104E-1,5.3737617E-1,-5.973401E-1,-1.6932003E-1,-3.6735287E-1,-2.1486392E-2,-1.8185255E-1,1.2980317E-1,2.055633E-2,8.679428E-2],"categories":[],"categories_nodes":[],"categories_segments":[],"categories_sizes":[],"default_left":[0,0,0,0,0,0,0,0,0,0,0,0,0,0,0],"id":28,"left_children":[1,3,5,7,9,11,13,-1,-1,-1,-1,-1,-1,-1,-1],"loss_changes":[3.8636885E3,2.470249E3,2.8506821E3,6.4850684E2,1.2572528E3,6.627686E3,8.598843E2,0E0,0E0,0E0,0E0,0E0,0E0,0E0,0E0],"parents":[2147483647,0,0,1,1,2,2,3,3,4,4,5,5,6,6],"right_children":[2,4,6,8,10,12,14,-1,-1,-1,-1,-1,-1,-1,-1],"split_conditions":[5.244052E-1,4E0,0E0,1E1,0E0,7.61135E-1,1E1,-5.973401E-1,-1.6932003E-1,-3.6735287E-1,-2.1486392E-2,-1.8185255E-1,1.2980317E-1,2.055633E-2,8.679428E-2],"split_indices":[0,2,1,1,1,0,1,0,0,0,0,0,0,0,0],"split_type":[0,0,0,0,0,0,0,0,0,0,0,0,0,0,0],"sum_hessian":[8E3,5E2,7.5E3,1.36E2,3.64E2,1.899E3,5.601E3,1.06E2,3E1,8.8E1,2.76E2,1.22E3,6.79E2,3.705E3,1.896E3],"tree_param":{"num_deleted":"0","num_feature":"35","num_nodes":"15","size_leaf_vector":"1"}},{"base_weights":[-1.2219828E-3,-1.3459133E0,3.3301026E-1,-4.940035E0,-2.3529296E-1,-2.4693224E0,4.2320892E-1,-5.8362365E-1,1.16253E-2,-2.7881083E-1,5.5165417E-2,-3.7586418E-1,-2.5965735E-2,1.5391323E-2,9.0871684E-2],"categories":[],"categories_nodes":[],"categories_segments":[],"categories_sizes":[],"default_left":[0,0,0,0,0,0,0,0,0,0,0,0,0,0,0],"id":29,"left_children":[1,3,5,7,9,11,13,-1,-1,-1,-1,-1,-1,-1,-1],"loss_changes":[3.5964114E3,6.3576226E3,1.6210261E3,4.504535E3,3.663287E3,9.5459644E2,1.0213301E3,0E0,0E0,0E0,0E0,0E0,0E0,0E0,0E0],"parents":[2147483647,0,0,1,1,2,2,3,3,4,4,5,5,6,6],"right_children":[2,4,6,8,10,12,14,-1,-1,-1,-1,-1,-1,-1,-1],"split_conditions":[3E0,0E0,5.1135874E-1,7.6575196E-1,5.8790153E-1,7E0,9E0,-5.8362365E-1,1.16253E-2,-2.7881083E-1,5.5165417E-2,-3.7586418E-1,-2.5965735E-2,1.5391323E-2,9.0871684E-2],"split_indices":[2,1,0,0,0,2,2,0,0,0,0,0,0,0,0],"split_type":[0,0,0,0,0,0,0,0,0,0,0,0,0,0,0],"sum_hessian":[8E3,1.592E3,6.408E3,3.75E2,1.217E3,1.99E2,6.209E3,2.56E2,1.19E2,2.69E2,9.48E2,9.7E1,1.02E2,4.691E3,1.518E3],"tree_param":{"num_deleted":"0","num_feature":"35","num_nodes":"15","size_leaf_vector":"1"}},{"base_weights":[-1.2597612E-3,-1.8616416E0,2.0596628E-1,-4.053215E0,2.859352E-1,-9.0197515E-1,4.5345813E-1,-4.6300495E-1,1.3426238E-1,-1.7222194E-1,8.551022E-2,-1.8479635E-1,3.589445E-2,1.4593732E-2,6.346813E-2],"categories":[],"categories_nodes":[],"categories_segments":[],"categories_sizes":[],"default_left":[0,0,0,0,0,0,0,0,0,0,0,0,0,0,0],"id":30,"left_children":[1,3,5,7,9,11,13,-1,-1,-1,-1,-1,-1,-1,-1],"loss_changes":[3.0849255E3,3.77583E3,1.9746956E3,3.9560518E3,7.7750507E2,2.5017659E3,5.4209424E2,0E0,0E0,0E0,0E0,0E0,0E0,0E0,0E0],"parents":[2147483647,0,0,1,1,2,2,3,3,4,4,5,5,6,6],"right_children":[2,4,6,8,10,12,14,-1,-1,-1,-1,-1,-1,-1,-1],"split_conditions":[2E0,7.033576E-1,5.7159644E-1,1E1,0E0,5E0,7E0,-4.6300495E-1,1.3426238E-1,-1.7222194E-1,8.551022E-2,-1.8479635E-1,3.589445E-2,1.4593732E-2,6.346813E-2],"split_indices":[2,0,0,1,1,1,2,0,0,0,0,0,0,0,0],"split_type":[0,0,0,0,0,0,0,0,0,0,0,0,0,0,0],"sum_hessian":[8E3,8.01E2,7.199E3,3.96E2,4.05E2,1.314E3,5.885E3,3.04E2,9.2E1,9.8E1,3.07E2,6.43E2,6.71E2,3.275E3,2.61E3],"tree_param":{"num_deleted":"0","num_feature":"35","num_nodes":"15","size_leaf_vector":"1"}},{"base_weights":[-1.2205215E-3,-2.0125992E0,1.6948505E-1,-3.5987608E0,5.155386E-2,-3.4312627E-1,6.7556024E-1,-3.869368E-1,1.58549E-2,-1.8631604E-1,6.09661E-2,-1.0262017E-1,8.247111E-2,3.4185495E-2,7.373655E-2],"categories":[],"categories_nodes":[],"categories_segments":[],"categories_sizes":[],"default_left":[0,0,0,0,0,0,0,0,0,0,0,0,0,0,0],"id":31,"left_children":[1,3,5,7,9,11,13,-1,-1,-1,-1,-1,-1,-1,-1],"loss_changes":[2.747513E3,2.0497598E3,1.9137126E3,1.6649106E3,4.6352753E2,4.733058E3,2.2642358E2,0E0,0E0,0E0,0E0,0E0,0E0,0E0,0E0],"parents":[2147483647,0,0,1,1,2,2,3,3,4,4,5,5,6,6],"right_children":[2,4,6,8,10,12,14,-1,-1,-1,-1,-1,-1,-1,-1],"split_conditions":[5.302303E-1,7E0,5E0,1E1,0E0,7E0,1E1,-3.869368E-1,1.58549E-2,-1.8631604E-1,6.09661E-2,-1.0262017E-1,8.247111E-2,3.4185495E-2,7.373655E-2],"split_indices":[0,2,1,1,1,2,1,0,0,0,0,0,0,0,0],"split_type":[0,0,0,0,0,0,0,0,0,0,0,0,0,0,0],"sum_hessian":[8E3,6.25E2,7.375E3,3.53E2,2.72E2,3.664E3,3.711E3,2.66E2,8.7E1,6.2E1,2.1E2,2.176E3,1.488E3,1.849E3,1.862E3],"tree_param":{"num_deleted":"0","num_feature":"35","num_nodes":"15","size_leaf_vector":"1"}},{"base_weights":[-1.1743593E-3,-1.1215403E0,2.7730033E-1,-4.2606735E0,-1.515603E-1,-2.0495536E0,3.5219458E-1,-4.6932542E-1,1.5599038E-1,-2.2861774E-1,5.516397E-2,-3.0581287E-1,-7.1094255E-3,1.2949851E-2,7.518734E-2],"categories":[],"categories_nodes":[],"categories_segments":[],"categories_sizes":[],"default_left":[0,0,0,0,0,0,0,0,0,0,0,0,0,0,0],"id":32,"left_children":[1,3,5,7,9,11,13,-1,-1,-1,-1,-1,-1,-1,-1],"loss_changes":[2.4965715E3,4.8498745E3,1.1176057E3,3.7614731E3,2.7743567E3,6.949616E2,6.943859E2,0E0,0E0,0E0,0E0,0E0,0E0,0E0,0E0],"parents":[2147483647,0,0,1,1,2,2,3,3,4,4,5,5,6,6],"right_children":[2,4,6,8,10,12,14,-1,-1,-1,-1,-1,-1,-1,-1],"split_conditions":[3E0,0E0,5.1135874E-1,8.0367756E-1,5.943341E-1,5E0,9E0,-4.6932542E-1,1.5599038E-1,-2.2861774E-1,5.516397E-2,-3.0581287E-1,-7.1094255E-3,1.2949851E-2,7.518734E-2],"split_indices":[2,1,0,0,0,1,2,0,0,0,0,0,0,0,0],"split_type":[0,0,0,0,0,0,0,0,0,0,0,0,0,0,0],"sum_hessian":[8E3,1.592E3,6.408E3,3.75E2,1.217E3,1.99E2,6.209E3,2.98E2,7.7E1,2.88E2,9.29E2,1.04E2,9.5E1,4.691E3,1.518E3],"tree_param":{"num_deleted":"0","num_feature":"35","num_nodes":"15","size_leaf_vector":"1"}},{"base_weights":[-1.1675401E-3,-6.0455203E-1,4.7511786E-1,-2.6530194E0,9.3276314E-2,2.543762E-1,8.727361E-1,-3.963873E-1,5.477114E-2,-4.2775605E-2,1.0815815E-1,-8.486669E-2,3.263178E-2,1.3078007E-1,1.2974949E-2],"categories":[],"categories_nodes":[],"categories_segments":[],"categories_sizes":[],"default_left":[0,0,0,0,0,0,0,0,0,0,0,0,0,0,0],"id":33,"left_children":[1,3,5,7,9,11,13,-1,-1,-1,-1,-1,-1,-1,-1],"loss_changes":[2.2996401E3,5.0463066E3,3.9228943E2,6.8947725E3,2.08271E3,5.813347E2,8.638876E2,0E0,0E0,0E0,0E0,0E0,0E0,0E0,0E0],"parents":[2147483647,0,0,1,1,2,2,3,3,4,4,5,5,6,6],"right_children":[2,4,6,8,10,12,14,-1,-1,-1,-1,-1,-1,-1,-1],"split_conditions":[6.752795E-1,0E0,8.2035387E-1,7E0,1E1,2E0,6E0,-3.963873E-1,5.477114E-2,-4.2775605E-2,1.0815815E-1,-8.486669E-2,3.263178E-2,1.3078007E-1,1.2974949E-2],"split_indices":[0,1,0,2,1,2,2,0,0,0,0,0,0,0,0],"split_type":[0,0,0,0,0,0,0,0,0,0,0,0,0,0,0],"sum_hessian":[8E3,3.529E3,4.471E3,8.96E2,2.633E3,2.876E3,1.595E3,5.3E2,3.66E2,1.757E3,8.76E2,3E2,2.576E3,7.69E2,8.26E2],"tree_param":{"num_deleted":"0","num_feature":"35","num_nodes":"15","size_leaf_vector":"1"}},{"base_weights":[-1.0974256E-3,-1.5499007E0,1.714222E-1,-3.1135347E0,6.730555E-1,-7.0721537E-1,3.676908E-1,-3.6469513E-1,1.4288005E-1,7.3417043E-4,1.595799E-1,-1.083623E-1,1.1453227E-1,9.765983E-3,4.699905E-2],"categories":[],"categories_nodes":[],"categories_segments":[],"categories_sizes":[],"default_left":[0,0,0,0,0,0,0,0,0,0,0,0,0,0,0],"id":34,"left_children":[1,3,5,7,9,11,13,-1,-1,-1,-1,-1,-1,-1,-1],"loss_changes":[2.1381248E3,2.7897593E3,1.2418926E3,3.3430972E3,2.9129297E2,1.822581E3,3.1768835E2,0E0,0E0,0E0,0E0,0E0,0E0,0E0,0E0],"parents":[2147483647,0,0,1,1,2,2,3,3,4,4,5,5,6,6],"right_children":[2,4,6,8,10,12,14,-1,-1,-1,-1,-1,-1,-1,-1],"split_conditions":[2E0,7.435148E-1,5.7159644E-1,1E1,8.4477395E-1,9E0,7.245439E-1,-3.6469513E-1,1.4288005E-1,7.3417043E-4,1.595799E-1,-1.083623E-1,1.1453227E-1,9.765983E-3,4.699905E-2],"split_indices":[2,0,0,1,0,2,0,0,0,0,0,0,0,0,0],"split_type":[0,0,0,0,0,0,0,0,0,0,0,0,0,0,0],"sum_hessian":[8E3,8.01E2,7.199E3,4.7E2,3.31E2,1.314E3,5.885E3,3.63E2,1.07E2,2.21E2,1.1E2,1.009E3,3.05E2,2.78E3,3.105E3],"tree_param":{"num_deleted":"0","num_feature":"35","num_nodes":"15","size_leaf_vector":"1"}},{"base_weights":[-1.0088589E-3,-1.8887187E0,1.2507348E-1,-4.1816263E0,-5.7872534E-1,-3.0159548E-1,5.4628414E-1,-4.1290912E-1,-8.6733654E-2,-1.7986149E-1,8.672341E-2,-8.269838E-2,8.361986E-2,5.9420295E-2,1.5844924E-2],"categories":[],"categories_nodes":[],"categories_segments":[],"categories_sizes":[],"default_left":[0,0,0,0,0,0,0,0,0,0,0,0,0,0,0],"id":35,"left_children":[1,3,5,7,9,11,13,-1,-1,-1,-1,-1,-1,-1,-1],"loss_changes":[1.9045292E3,1.5024305E3,1.3482258E3,5.4671875E2,8.9077747E2,3.6761655E3,2.5812012E2,0E0,0E0,0E0,0E0,0E0,0E0,0E0,0E0],"parents":[2147483647,0,0,1,1,2,2,3,3,4,4,5,5,6,6],"right_children":[2,4,6,8,10,12,14,-1,-1,-1,-1,-1,-1,-1,-1],"split_conditions":[5.244052E-1,5E0,5E0,1E1,5E0,7.6575196E-1,7.6437676E-1,-4.1290912E-1,-8.6733654E-2,-1.7986149E-1,8.672341E-2,-8.269838E-2,8.361986E-2,5.9420295E-2,1.5844924E-2],"split_indices":[0,2,1,1,1,0,0,0,0,0,0,0,0,0,0],"split_type":[0,0,0,0,0,0,0,0,0,0,0,0,0,0,0],"sum_hessian":[8E3,5E2,7.5E3,1.81E2,3.19E2,3.726E3,3.774E3,1.37E2,4.4E1,1.59E2,1.6E2,2.414E3,1.312E3,2.412E3,1.362E3],"tree_param":{"num_deleted":"0","num_feature":"35","num_nodes":"15","size_leaf_vector":"1"}},{"base_weights":[-9.928579E-4,-1.4171348E0,1.5674976E-1,-3.1279438E0,2.5924042E-1,-7.689037E-1,2.9637897E-1,-3.573026E-1,1.03589274E-1,-7.324621E-2,1.0794495E-1,-2.390218E-1,-7.242803E-3,9.170828E-3,5.2322824E-2],"categories":[],"categories_nodes":[],"categories_segments":[],"categories_sizes":[],"default_left":[0,0,0,0,0,0,0,0,0,0,0,0,0,0,0],"id":36,"left_children":[1,3,5,7,9,11,13,-1,-1,-1,-1,-1,-1,-1,-1],"loss_changes":[1.7875328E3,2.3009128E3,9.308154E2,2.355713E3,5.211735E2,1.4206489E3,4.0664105E2,0E0,0E0,0E0,0E0,0E0,0E0,0E0,0E0],"parents":[2147483647,0,0,1,1,2,2,3,3,4,4,5,5,6,6],"right_children":[2,4,6,8,10,12,14,-1,-1,-1,-1,-1,-1,-1,-1],"split_conditions":[2E0,7.033576E-1,5.498232E-1,1E1,5E0,0E0,8E0,-3.573026E-1,1.03589274E-1,-7.324621E-2,1.0794495E-1,-2.390218E-1,-7.242803E-3,9.170828E-3,5.2322824E-2],"split_indices":[2,0,0,1,1,1,2,0,0,0,0,0,0,0,0],"split_type":[0,0,0,0,0,0,0,0,0,0,0,0,0,0,0],"sum_hessian":[8E3,8.01E2,7.199E3,3.96E2,4.05E2,9.43E2,6.256E3,3.04E2,9.2E1,1.95E2,2.1E2,2.2E2,7.23E2,4.149E3,2.107E3],"tree_param":{"num_deleted":"0","num_feature":"35","num_nodes":"15","size_leaf_vector":"1"}},{"base_weights":[-9.6399465E-4,-8.8587075E-1,2.1898568E-1,-1.7286351E0,1.6745349E0,-1.6036912E0,2.7765176E-1,-2.4634658E-1,9.080985E-2,-8.679734E-2,1.73761E-1,-2.6305687E-1,1.1700499E-3,1.00199925E-2,5.985753E-2],"categories":[],"categories_nodes":[],"categories_segments":[],"categories_sizes":[],"default_left":[0,0,0,0,0,0,0,0,0,0,0,0,0,0,0],"id":37,"left_children":[1,3,5,7,9,11,13,-1,-1,-1,-1,-1,-1,-1,-1],"loss_changes":[1.5574684E3,3.4402998E3,6.857553E2,4.6413115E3,5.4460913E2,5.452654E2,4.4525854E2,0E0,0E0,0E0,0E0,0E0,0E0,0E0,0E0],"parents":[2147483647,0,0,1,1,2,2,3,3,4,4,5,5,6,6],"right_children":[2,4,6,8,10,12,14,-1,-1,-1,-1,-1,-1,-1,-1],"split_conditions":[3E0,1E1,5.1135874E-1,7.701875E-1,5.574207E-1,7E0,9E0,-2.4634658E-1,9.080985E-2,-8.679734E-2,1.73761E-1,-2.6305687E-1,1.1700499E-3,1.00199925E-2,5.985753E-2],"split_indices":[2,1,0,0,0,2,2,0,0,0,0,0,0,0,0],"split_type":[0,0,0,0,0,0,0,0,0,0,0,0,0,0,0],"sum_hessian":[8E3,1.592E3,6.408E3,1.198E3,3.94E2,1.99E2,6.209E3,8.14E2,3.84E2,6E1,3.34E2,9.7E1,1.02E2,4.691E3,1.518E3],"tree_param":{"num_deleted":"0","num_feature":"35","num_nodes":"15","size_leaf_vector":"1"}},{"base_weights":[-9.185945E-4,-7.38224E-1,2.470664E-1,-1.9805914E0,9.516199E-1,-1.9279644E0,3.1095144E-1,-2.804708E-1,1.4452842E-1,1.1917365E-2,1.4596461E-1,-6.364775E-1,-8.976976E-2,1.1897099E-2,5.014432E-2],"categories":[],"categories_nodes":[],"categories_segments":[],"categories_sizes":[],"default_left":[0,0,0,0,0,0,0,0,0,0,0,0,0,0,0],"id":38,"left_children":[1,3,5,7,9,11,13,-1,-1,-1,-1,-1,-1,-1,-1],"loss_changes":[1.4630907E3,4.2300903E3,8.326438E2,6.71295E3,5.980969E2,8.2172565E2,2.9803973E2,0E0,0E0,0E0,0E0,0E0,0E0,0E0,0E0],"parents":[2147483647,0,0,1,1,2,2,3,3,4,4,5,5,6,6],"right_children":[2,4,6,8,10,12,14,-1,-1,-1,-1,-1,-1,-1,-1],"split_conditions":[0E0,7.245439E-1,5.099562E-1,8E0,8.1331015E-1,2E0,1E1,-2.804708E-1,1.4452842E-1,1.1917365E-2,1.4596461E-1,-6.364775E-1,-8.976976E-2,1.1897099E-2,5.014432E-2],"split_indices":[1,0,0,2,0,2,1,0,0,0,0,0,0,0,0],"split_type":[0,0,0,0,0,0,0,0,0,0,0,0,0,0,0],"sum_hessian":[8E3,2.013E3,5.987E3,1.16E3,8.53E2,1.7E2,5.817E3,8.27E2,3.33E2,4.45E2,4.08E2,1.9E1,1.51E2,3.844E3,1.973E3],"tree_param":{"num_deleted":"0","num_feature":"35","num_nodes":"15","size_leaf_vector":"1"}},{"base_weights":[-9.25009E-4,-1.2100148E0,1.3375428E-1,-3.5735052E0,-3.547038E-1,-4.9500057E-1,2.81991E-1,-3.680349E-1,-3.0922875E-2,-1.4434147E-1,8.420449E-2,-1.8038988E-1,4.5438567E-3,1.0079326E-2,3.3489056E-2],"categories":[],"categories_nodes":[],"categories_segments":[],"categories_sizes":[],"default_left":[0,0,0,0,0,0,0,0,0,0,0,0,0,0,0],"id":39,"left_children":[1,3,5,7,9,11,13,-1,-1,-1,-1,-1,-1,-1,-1],"loss_changes":[1.3030396E3,1.6199908E3,6.712124E2,6.953274E2,1.2054485E3,1.3344136E3,1.2413797E2,0E0,0E0,0E0,0E0,0E0,0E0,0E0,0E0],"parents":[2147483647,0,0,1,1,2,2,3,3,4,4,5,5,6,6],"right_children":[2,4,6,8,10,12,14,-1,-1,-1,-1,-1,-1,-1,-1],"split_conditions":[2E0,6.134463E-1,5.749455E-1,1E1,5E0,0E0,7.245439E-1,-3.680349E-1,-3.0922875E-2,-1.4434147E-1,8.420449E-2,-1.8038988E-1,4.5438567E-3,1.0079326E-2,3.3489056E-2],"split_indices":[2,0,0,1,1,1,0,0,0,0,0,0,0,0,0],"split_type":[0,0,0,0,0,0,0,0,0,0,0,0,0,0,0],"sum_hessian":[8E3,8.01E2,7.199E3,2.12E2,5.89E2,1.373E3,5.826E3,1.6E2,5.2E1,2.9E2,2.99E2,3.27E2,1.046E3,2.721E3,3.105E3],"tree_param":{"num_deleted":"0","num_feature":"35","num_nodes":"15","size_leaf_vector":"1"}},{"base_weights":[-9.237417E-4,-6.475944E-1,2.165772E-1,-1.6854305E0,9.658843E-1,-1.7509564E0,2.7436882E-1,-2.765633E-1,8.676891E-2,3.229991E-2,1.5800802E-1,-3.833677E-1,-3.0542828E-2,1.0478396E-2,4.4282064E-2],"categories":[],"categories_nodes":[],"categories_segments":[],"categories_sizes":[],"default_left":[0,0,0,0,0,0,0,0,0,0,0,0,0,0,0],"id":40,"left_children":[1,3,5,7,9,11,13,-1,-1,-1,-1,-1,-1,-1,-1],"loss_changes":[1.1254928E3,3.3741245E3,6.813578E2,6.0202666E3,4.4681488E2,7.101871E2,2.328104E2,0E0,0E0,0E0,0E0,0E0,0E0,0E0,0E0],"parents":[2147483647,0,0,1,1,2,2,3,3,4,4,5,5,6,6],"right_children":[2,4,6,8,10,12,14,-1,-1,-1,-1,-1,-1,-1,-1],"split_conditions":[0E0,7.4013835E-1,5.099562E-1,7E0,8.4648156E-1,4E0,1E1,-2.765633E-1,8.676891E-2,3.229991E-2,1.5800802E-1,-3.833677E-1,-3.0542828E-2,1.0478396E-2,4.4282064E-2],"split_indices":[1,0,0,2,0,2,1,0,0,0,0,0,0,0,0],"split_type":[0,0,0,0,0,0,0,0,0,0,0,0,0,0,0],"sum_hessian":[8E3,2.013E3,5.987E3,1.225E3,7.88E2,1.7E2,5.817E3,7.47E2,4.78E2,5.07E2,2.81E2,5.2E1,1.18E2,3.844E3,1.973E3],"tree_param":{"num_deleted":"0","num_feature":"35","num_nodes":"15","size_leaf_vector":"1"}},{"base_weights":[-8.9277123E-4,-1.0903966E0,1.2046598E-1,-2.4161565E0,1.7672823E-1,-8.2257456E-1,2.0073985E-1,-2.786613E-1,8.416911E-2,-1.1886897E-1,5.6723464E-2,-1.21352844E-1,9.152109E-2,-1.328326E-3,3.0060377E-2],"categories":[],"categories_nodes":[],"categories_segments":[],"categories_sizes":[],"default_left":[0,0,0,0,0,0,0,0,0,0,0,0,0,0,0],"id":41,"left_children":[1,3,5,7,9,11,13,-1,-1,-1,-1,-1,-1,-1,-1],"loss_changes":[1.0580303E3,1.3477095E3,5.4521606E2,1.454467E3,3.6479758E2,7.7322766E2,2.5242917E2,0E0,0E0,0E0,0E0,0E0,0E0,0E0,0E0],"parents":[2147483647,0,0,1,1,2,2,3,3,4,4,5,5,6,6],"right_children":[2,4,6,8,10,12,14,-1,-1,-1,-1,-1,-1,-1,-1],"split_conditions":[2E0,7.019141E-1,5.302303E-1,1E1,0E0,1E1,6E0,-2.786613E-1,8.416911E-2,-1.1886897E-1,5.6723464E-2,-1.21352844E-1,9.152109E-2,-1.328326E-3,3.0060377E-2],"split_indices":[2,0,0,1,1,1,2,0,0,0,0,0,0,0,0],"split_type":[0,0,0,0,0,0,0,0,0,0,0,0,0,0,0],"sum_hessian":[8E3,8.01E2,7.199E3,3.91E2,4.1E2,5.64E2,6.635E3,2.99E2,9.2E1,9.9E1,3.11E2,4.17E2,1.47E2,2.96E3,3.675E3],"tree_param":{"num_deleted":"0","num_feature":"35","num_nodes":"15","size_leaf_vector":"1"}},{"base_weights":[-8.535968E-4,-1.3128085E0,8.6773425E-2,-5.211236E0,-8.3997846E-1,-4.2330688E-1,2.5975913E-1,-4.6896037E-1,-3.486851E-4,-1.22194335E-1,9.125764E-2,-1.763418E-1,2.596075E-2,1.4007667E-3,3.0159747E-2],"categories":[],"categories_nodes":[],"categories_segments":[],"categories_sizes":[],"default_left":[0,0,0,0,0,0,0,0,0,0,0,0,0,0,0],"id":42,"left_children":[1,3,5,7,9,11,13,-1,-1,-1,-1,-1,-1,-1,-1],"loss_changes":[9.1993054E2,9.191129E2,6.6197266E2,1.829519E2,6.117539E2,2.531202E3,1.5909457E2,0E0,0E0,0E0,0E0,0E0,0E0,0E0,0E0],"parents":[2147483647,0,0,1,1,2,2,3,3,4,4,5,5,6,6],"right_children":[2,4,6,8,10,12,14,-1,-1,-1,-1,-1,-1,-1,-1],"split_conditions":[5.244052E-1,2E0,0E0,1E0,1E1,4E0,5E0,-4.6896037E-1,-3.486851E-4,-1.22194335E-1,9.125764E-2,-1.763418E-1,2.596075E-2,1.4007667E-3,3.0159747E-2],"split_indices":[0,2,1,10,1,2,1,0,0,0,0,0,0,0,0],"split_type":[0,0,0,0,0,0,0,0,0,0,0,0,0,0,0],"sum_hessian":[8E3,5E2,7.5E3,5.3E1,4.47E2,1.899E3,5.601E3,4.7E1,6E0,3.32E2,1.15E2,5.61E2,1.338E3,1.827E3,3.774E3],"tree_param":{"num_deleted":"0","num_feature":"35","num_nodes":"15","size_leaf_vector":"1"}},{"base_weights":[-8.6363533E-4,-9.518069E-1,1.05060995E-1,-2.8935049E0,-2.4021356E-1,-4.0018752E-1,2.2418E-1,-2.9725415E-1,-2.9872436E-2,-1.1441946E-1,7.3813476E-2,-7.1936555E-2,1.02981135E-1,1.4048304E-2,3.764604E-2],"categories":[],"categories_nodes":[],"categories_segments":[],"categories_sizes":[],"default_left":[0,0,0,0,0,0,0,0,0,0,0,0,0,0,0],"id":43,"left_children":[1,3,5,7,9,11,13,-1,-1,-1,-1,-1,-1,-1,-1],"loss_changes":[8.060272E2,1.1074279E3,4.3341946E2,4.440829E2,8.150318E2,1.1581633E3,6.966049E1,0E0,0E0,0E0,0E0,0E0,0E0,0E0,0E0],"parents":[2147483647,0,0,1,1,2,2,3,3,4,4,5,5,6,6],"right_children":[2,4,6,8,10,12,14,-1,-1,-1,-1,-1,-1,-1,-1],"split_conditions":[2E0,6.147065E-1,5.749455E-1,1E1,5E0,9E0,8.4794074E-1,-2.9725415E-1,-2.9872436E-2,-1.1441946E-1,7.3813476E-2,-7.1936555E-2,1.02981135E-1,1.4048304E-2,3.764604E-2],"split_indices":[2,0,0,1,1,2,0,0,0,0,0,0,0,0,0],"split_type":[0,0,0,0,0,0,0,0,0,0,0,0,0,0,0],"sum_hessian":[8E3,8.01E2,7.199E3,2.14E2,5.87E2,1.373E3,5.826E3,1.61E2,5.3E1,2.9E2,2.97E2,1.06E3,3.13E2,4.868E3,9.58E2],"tree_param":{"num_deleted":"0","num_feature":"35","num_nodes":"15","size_leaf_vector":"1"}},{"base_weights":[-8.282375E-4,-5.3580785E-1,1.791066E-1,-1.5348115E0,8.229498E-1,-1.3891212E0,2.2516844E-1,-2.2338523E-1,1.2697513E-1,2.6313901E-2,1.4590803E-1,-2.769207E-1,9.351135E-3,9.169855E-3,3.5230145E-2],"categories":[],"categories_nodes":[],"categories_segments":[],"categories_sizes":[],"default_left":[0,0,0,0,0,0,0,0,0,0,0,0,0,0,0],"id":44,"left_children":[1,3,5,7,9,11,13,-1,-1,-1,-1,-1,-1,-1,-1],"loss_changes":[7.7028394E2,2.7350742E3,4.3285876E2,4.5624355E3,4.2167822E2,5.3410205E2,1.3836127E2,0E0,0E0,0E0,0E0,0E0,0E0,0E0,0E0],"parents":[2147483647,0,0,1,1,2,2,3,3,4,4,5,5,6,6],"right_children":[2,4,6,8,10,12,14,-1,-1,-1,-1,-1,-1,-1,-1],"split_conditions":[0E0,7.245439E-1,5.099562E-1,8E0,8.4648156E-1,5E0,1E1,-2.2338523E-1,1.2697513E-1,2.6313901E-2,1.4590803E-1,-2.769207E-1,9.351135E-3,9.169855E-3,3.5230145E-2],"split_indices":[1,0,0,2,0,2,1,0,0,0,0,0,0,0,0],"split_type":[0,0,0,0,0,0,0,0,0,0,0,0,0,0,0],"sum_hessian":[8E3,2.013E3,5.987E3,1.16E3,8.53E2,1.7E2,5.817E3,8.27E2,3.33E2,5.72E2,2.81E2,7.1E1,9.9E1,3.844E3,1.973E3],"tree_param":{"num_deleted":"0","num_feature":"35","num_nodes":"15","size_leaf_vector":"1"}},{"base_weights":[-7.809006E-4,-5.814195E-1,1.4354084E-1,-1.2105054E0,1.3296065E0,-1.0399363E0,1.8163294E-1,-1.8086205E-1,8.1275105E-2,-6.942692E-2,1.3806152E-1,-1.8784203E-1,1.7179979E-2,9.5074875E-3,5.108647E-2],"categories":[],"categories_nodes":[],"categories_segments":[],"categories_sizes":[],"default_left":[0,0,0,0,0,0,0,0,0,0,0,0,0,0,0],"id":45,"left_children":[1,3,5,7,9,11,13,-1,-1,-1,-1,-1,-1,-1,-1],"loss_changes":[6.705575E2,1.9167131E3,2.891138E2,2.806001E3,3.4536273E2,3.287525E2,1.7809807E2,0E0,0E0,0E0,0E0,0E0,0E0,0E0,0E0],"parents":[2147483647,0,0,1,1,2,2,3,3,4,4,5,5,6,6],"right_children":[2,4,6,8,10,12,14,-1,-1,-1,-1,-1,-1,-1,-1],"split_conditions":[3E0,1E1,5.1135874E-1,7.701875E-1,5.574207E-1,7E0,1E1,-1.8086205E-1,8.1275105E-2,-6.942692E-2,1.3806152E-1,-1.8784203E-1,1.7179979E-2,9.5074875E-3,5.108647E-2],"split_indices":[2,1,0,0,0,2,2,0,0,0,0,0,0,0,0],"split_type":[0,0,0,0,0,0,0,0,0,0,0,0,0,0,0],"sum_hessian":[8E3,1.592E3,6.408E3,1.198E3,3.94E2,1.99E2,6.209E3,8.14E2,3.84E2,6E1,3.34E2,9.7E1,1.02E2,5.46E3,7.49E2],"tree_param":{"num_deleted":"0","num_feature":"35","num_nodes":"15","size_leaf_vector":"1"}},{"base_weights":[-7.3519006E-4,-4.83091E-1,1.6150017E-1,-1.4031845E0,7.2350305E-1,-1.1818625E0,2.0095591E-1,-2.5575116E-1,3.6548026E-2,9.967226E-3,1.1465441E-1,-2.8462183E-1,-9.100183E-3,4.0679995E-4,2.3586497E-2],"categories":[],"categories_nodes":[],"categories_segments":[],"categories_sizes":[],"default_left":[0,0,0,0,0,0,0,0,0,0,0,0,0,0,0],"id":46,"left_children":[1,3,5,7,9,11,13,-1,-1,-1,-1,-1,-1,-1,-1],"loss_changes":[6.261976E2,2.2369165E3,3.176217E2,3.8149136E3,3.7045166E2,4.3354785E2,1.06976654E2,0E0,0E0,0E0,0E0,0E0,0E0,0E0,0E0],"parents":[2147483647,0,0,1,1,2,2,3,3,4,4,5,5,6,6],"right_children":[2,4,6,8,10,12,14,-1,-1,-1,-1,-1,-1,-1,-1],"split_conditions":[0E0,7.2131944E-1,5.099562E-1,6E0,8.148332E-1,4E0,5E0,-2.5575116E-1,3.6548026E-2,9.967226E-3,1.1465441E-1,-2.8462183E-1,-9.100183E-3,4.0679995E-4,2.3586497E-2],"split_indices":[1,0,0,2,0,2,1,0,0,0,0,0,0,0,0],"split_type":[0,0,0,0,0,0,0,0,0,0,0,0,0,0,0],"sum_hessian":[8E3,2.013E3,5.987E3,1.142E3,8.71E2,1.7E2,5.817E3,5.81E2,5.61E2,4.73E2,3.98E2,5.2E1,1.18E2,1.885E3,3.932E3],"tree_param":{"num_deleted":"0","num_feature":"35","num_nodes":"15","size_leaf_vector":"1"}},{"base_weights":[-7.225607E-4,-7.9531276E-1,8.7786056E-2,-2.4052615E0,-2.0528845E-1,-4.6255755E-1,1.5917708E-1,-2.4565038E-1,-2.9169153E-2,-9.632728E-2,6.1659295E-2,-1.7464808E-1,4.8886165E-3,1.485642E-2,-1.858087E-2],"categories":[],"categories_nodes":[],"categories_segments":[],"categories_sizes":[],"default_left":[0,0,0,0,0,0,0,0,0,0,0,0,0,0,0],"id":47,"left_children":[1,3,5,7,9,11,13,-1,-1,-1,-1,-1,-1,-1,-1],"loss_changes":[5.627648E2,7.613331E2,2.829587E2,2.9080347E2,5.7414624E2,7.4525116E2,6.623161E1,0E0,0E0,0E0,0E0,0E0,0E0,0E0,0E0],"parents":[2147483647,0,0,1,1,2,2,3,3,4,4,5,5,6,6],"right_children":[2,4,6,8,10,12,14,-1,-1,-1,-1,-1,-1,-1,-1],"split_conditions":[2E0,6.147065E-1,5.4423267E-1,1E1,5E0,0E0,1E0,-2.4565038E-1,-2.9169153E-2,-9.632728E-2,6.1659295E-2,-1.7464808E-1,4.8886165E-3,1.485642E-2,-1.858087E-2],"split_indices":[2,0,0,1,1,1,16,0,0,0,0,0,0,0,0],"split_type":[0,0,0,0,0,0,0,0,0,0,0,0,0,0,0],"sum_hessian":[8E3,8.01E2,7.199E3,2.14E2,5.87E2,8.26E2,6.373E3,1.61E2,5.3E1,2.9E2,2.97E2,1.92E2,6.34E2,5.969E3,4.04E2],"tree_param":{"num_deleted":"0","num_feature":"35","num_nodes":"15","size_leaf_vector":"1"}},{"base_weights":[-7.2401913E-4,-9.5800686E-1,6.321404E-2,-1.5248297E0,1.1434237E0,-2.9354516E-1,1.8420285E-1,-2.4398881E-1,-2.4826145E-2,6.661263E-2,3.908055E-1,-7.194466E-2,8.9718394E-2,2.419544E-2,4.091268E-3],"categories":[],"categories_nodes":[],"categories_segments":[],"categories_sizes":[],"default_left":[0,0,0,0,0,0,0,0,0,0,0,0,0,0,0],"id":48,"left_children":[1,3,5,7,9,11,13,-1,-1,-1,-1,-1,-1,-1,-1],"loss_changes":[4.8977628E2,5.985041E2,3.2382623E2,7.306544E2,1.20349396E2,1.6296318E3,8.812227E1,0E0,0E0,0E0,0E0,0E0,0E0,0E0,0E0],"parents":[2147483647,0,0,1,1,2,2,3,3,4,4,5,5,6,6],"right_children":[2,4,6,8,10,12,14,-1,-1,-1,-1,-1,-1,-1,-1],"split_conditions":[5.244052E-1,9E0,0E0,5E0,1E0,8E0,7.229621E-1,-2.4398881E-1,-2.4826145E-2,6.661263E-2,3.908055E-1,-7.194466E-2,8.9718394E-2,2.419544E-2,4.091268E-3],"split_indices":[0,2,1,1,30,2,0,0,0,0,0,0,0,0,0],"split_type":[0,0,0,0,0,0,0,0,0,0,0,0,0,0,0],"sum_hessian":[8E3,5E2,7.5E3,3.94E2,1.06E2,1.899E3,5.601E3,1.74E2,2.2E2,9.9E1,7E0,1.33E3,5.69E2,2.965E3,2.636E3],"tree_param":{"num_deleted":"0","num_feature":"35","num_nodes":"15","size_leaf_vector":"1"}},{"base_weights":[-6.353271E-4,-7.189272E-1,7.93745E-2,-1.3192333E0,7.263799E-1,-2.8873047E-1,1.6159989E-1,-1.653555E-1,8.7100126E-2,5.2970485E-3,1.1855752E-1,-5.6185596E-2,8.618629E-2,1.4778023E-2,-1.2897264E-2],"categories":[],"categories_nodes":[],"categories_segments":[],"categories_sizes":[],"default_left":[0,0,0,0,0,0,0,0,0,0,0,0,0,0,0],"id":49,"left_children":[1,3,5,7,9,11,13,-1,-1,-1,-1,-1,-1,-1,-1],"loss_changes":[4.5987784E2,6.967949E2,2.179732E2,1.0231202E3,1.1762218E2,7.4371545E2,4.3970184E1,0E0,0E0,0E0,0E0,0E0,0E0,0E0,0E0],"parents":[2147483647,0,0,1,1,2,2,3,3,4,4,5,5,6,6],"right_children":[2,4,6,8,10,12,14,-1,-1,-1,-1,-1,-1,-1,-1],"split_conditions":[2E0,7.879906E-1,5.7159644E-1,1E1,8.4648156E-1,9E0,1E0,-1.653555E-1,8.7100126E-2,5.2970485E-3,1.1855752E-1,-5.6185596E-2,8.618629E-2,1.4778023E-2,-1.2897264E-2],"split_indices":[2,0,0,1,0,2,12,0,0,0,0,0,0,0,0],"split_type":[0,0,0,0,0,0,0,0,0,0,0,0,0,0,0],"sum_hessian":[8E3,8.01E2,7.199E3,5.66E2,2.35E2,1.314E3,5.885E3,4.32E2,1.34E2,1.26E2,1.09E2,1.009E3,3.05E2,5.492E3,3.93E2],"tree_param":{"num_deleted":"0","num_feature":"35","num_nodes":"15","size_leaf_vector":"1"}}]},"name":"gbtree"},"learner_model_param":{"base_score":"9.010378E1","boost_from_average":"1","num_class":"0","num_feature":"35","num_target":"1"},"objective":{"name":"reg:squarederror","reg_loss_param":{"scale_pos_weight":"1"}}},"version":[2,1,4]}